<?xml version="1.0"?>
<opencv_storage>
<stage6>
  <maxWeakCount>5</maxWeakCount>
  <stageThreshold>-9.2573809623718262e-01</stageThreshold>
  <weakClassifiers>
    <_>
      <internalNodes>
        0 -1 90290 3.2455038279294968e-02</internalNodes>
      <leafValues>
        -5.5121952295303345e-01 6.9966328144073486e-01</leafValues></_>
    <_>
      <internalNodes>
        0 -1 145557 -1.1671373248100281e-01</internalNodes>
      <leafValues>
        7.2133821249008179e-01 -4.6520376205444336e-01</leafValues></_>
    <_>
      <internalNodes>
        0 -1 141086 -3.1148774723988026e-05</internalNodes>
      <leafValues>
        -9.4988632202148438e-01 3.7157410383224487e-01</leafValues></_>
    <_>
      <internalNodes>
        0 -1 60247 -2.8524409979581833e-02</internalNodes>
      <leafValues>
        5.2689456939697266e-01 -6.0677361488342285e-01</leafValues></_>
    <_>
      <internalNodes>
        0 -1 141024 1.8964812625199556e-04</internalNodes>
      <leafValues>
        3.2588472962379456e-01 -9.0342420339584351e-01</leafValues></_></weakClassifiers></stage6>
</opencv_storage>
